<?xml version="1.0" encoding="UTF-8"?>
<BIF VERSION="0.3"  xmlns="http://www.cs.ubc.ca/labs/lci/fopi/ve/XMLBIFv0_3"
    xmlns:xsi="http://www.w3.org/2001/XMLSchema-instance"
    xsi:schemaLocation="http://www.cs.ubc.ca/labs/lci/fopi/ve/XMLBIFv0_3 http://www.cs.ubc.ca/labs/lci/fopi/ve/XMLBIFv0_3/XMLBIFv0_3.xsd">
<NETWORK>
<NAME>Nuclear Power Station</NAME>
<PROPERTY>detailed = </PROPERTY>
<PROPERTY>short = </PROPERTY>

<VARIABLE TYPE="nature">
    <NAME>WaterLeak</NAME>
    <OUTCOME>T</OUTCOME>
    <OUTCOME>F</OUTCOME>
    <PROPERTY>position = (7616.4541015625, 5161.34814453125)</PROPERTY>
</VARIABLE>

<VARIABLE TYPE="nature">
    <NAME>WaterLeakWarning</NAME>
    <OUTCOME>T</OUTCOME>
    <OUTCOME>F</OUTCOME>
    <PROPERTY>position = (7689.203125, 5285.884765625)</PROPERTY>
</VARIABLE>

<VARIABLE TYPE="nature">
    <NAME>IcyWeather</NAME>
    <OUTCOME>T</OUTCOME>
    <OUTCOME>F</OUTCOME>
    <PROPERTY>position = (7804.4541015625, 5052.9091796875)</PROPERTY>
</VARIABLE>

<VARIABLE TYPE="nature">
    <NAME>PumpFailure</NAME>
    <OUTCOME>T</OUTCOME>
    <OUTCOME>F</OUTCOME>
    <PROPERTY>position = (7372.31298828125, 5158.88232421875)</PROPERTY>
</VARIABLE>

<VARIABLE TYPE="nature">
    <NAME>PumpFailureWarning</NAME>
    <OUTCOME>T</OUTCOME>
    <OUTCOME>F</OUTCOME>
    <PROPERTY>position = (7300.79736328125, 5283.41845703125)</PROPERTY>
</VARIABLE>

<VARIABLE TYPE="nature">
    <NAME>Meltdown</NAME>
    <OUTCOME>T</OUTCOME>
    <OUTCOME>F</OUTCOME>
    <PROPERTY>position = (7477.12109375, 5398.0908203125)</PROPERTY>
</VARIABLE>

<VARIABLE TYPE="nature">
    <NAME>battery</NAME>
    <OUTCOME>T</OUTCOME>
    <OUTCOME>F</OUTCOME>
    <PROPERTY>position = (8010.0, 5148.0)</PROPERTY>
</VARIABLE>

<VARIABLE TYPE="nature">
    <NAME>radio</NAME>
    <OUTCOME>T</OUTCOME>
    <OUTCOME>F</OUTCOME>
    <PROPERTY>position = (7869.0, 5280.0)</PROPERTY>
</VARIABLE>

<VARIABLE TYPE="nature">
    <NAME>ignition</NAME>
    <OUTCOME>T</OUTCOME>
    <OUTCOME>F</OUTCOME>
    <PROPERTY>position = (8096.0, 5275.0)</PROPERTY>
</VARIABLE>

<VARIABLE TYPE="nature">
    <NAME>gas</NAME>
    <OUTCOME>T</OUTCOME>
    <OUTCOME>F</OUTCOME>
    <PROPERTY>position = (8266.0, 5273.0)</PROPERTY>
</VARIABLE>

<VARIABLE TYPE="nature">
    <NAME>starts</NAME>
    <OUTCOME>T</OUTCOME>
    <OUTCOME>F</OUTCOME>
    <PROPERTY>position = (8171.0, 5385.0)</PROPERTY>
</VARIABLE>

<VARIABLE TYPE="nature">
    <NAME>moves</NAME>
    <OUTCOME>T</OUTCOME>
    <OUTCOME>F</OUTCOME>
    <PROPERTY>position = (8171.0, 5524.0)</PROPERTY>
</VARIABLE>

<VARIABLE TYPE="nature">
    <NAME>survives</NAME>
    <OUTCOME>T</OUTCOME>
    <OUTCOME>F</OUTCOME>
    <PROPERTY>position = (7763.0, 5660.0)</PROPERTY>
</VARIABLE>

<VARIABLE TYPE="nature">
    <NAME>bicycle_works</NAME>
    <OUTCOME>T</OUTCOME>
    <OUTCOME>F</OUTCOME>
    <PROPERTY>position = (7780.0, 5510.0)</PROPERTY>
</VARIABLE>

<DEFINITION>
    <FOR>WaterLeak</FOR>
    <GIVEN>IcyWeather</GIVEN>
    <TABLE>0.2 0.8 0.1 0.9</TABLE>
</DEFINITION>

<DEFINITION>
    <FOR>WaterLeakWarning</FOR>
    <GIVEN>WaterLeak</GIVEN>
    <TABLE>0.9 0.1 0.05 0.95</TABLE>
</DEFINITION>

<DEFINITION>
    <FOR>IcyWeather</FOR>
    <TABLE>0.05 0.95</TABLE>
</DEFINITION>

<DEFINITION>
    <FOR>PumpFailure</FOR>
    <TABLE>0.1 0.9</TABLE>
</DEFINITION>

<DEFINITION>
    <FOR>PumpFailureWarning</FOR>
    <GIVEN>PumpFailure</GIVEN>
    <TABLE>0.9 0.1 0.05 0.95</TABLE>
</DEFINITION>

<DEFINITION>
    <FOR>Meltdown</FOR>
    <GIVEN>WaterLeak</GIVEN>
    <GIVEN>PumpFailure</GIVEN>
    <TABLE>0.2 0.8 0.1 0.9 0.15 0.85 0.001 0.999</TABLE>
</DEFINITION>

<DEFINITION>
    <FOR>battery</FOR>
    <GIVEN>IcyWeather</GIVEN>
    <TABLE>0.8 0.2 0.95 0.05</TABLE>
</DEFINITION>

<DEFINITION>
    <FOR>radio</FOR>
    <GIVEN>battery</GIVEN>
    <TABLE>0.95 0.05 0.0 1.0</TABLE>
</DEFINITION>

<DEFINITION>
    <FOR>ignition</FOR>
    <GIVEN>battery</GIVEN>
    <TABLE>0.95 0.05 0.0 1.0</TABLE>
</DEFINITION>

<DEFINITION>
    <FOR>gas</FOR>
    <TABLE>0.95 0.05</TABLE>
</DEFINITION>

<DEFINITION>
    <FOR>starts</FOR>
    <GIVEN>ignition</GIVEN>
    <GIVEN>gas</GIVEN>
    <TABLE>0.95 0.05 0.0 1.0 0.0 1.0 0.0 1.0</TABLE>
</DEFINITION>

<DEFINITION>
    <FOR>moves</FOR>
    <GIVEN>starts</GIVEN>
    <TABLE>0.95 0.05 0.0 1.0</TABLE>
</DEFINITION>

<DEFINITION>
    <FOR>survives</FOR>
    <GIVEN>Meltdown</GIVEN>
    <GIVEN>moves</GIVEN>
    <GIVEN>bicycle_works</GIVEN>
    <TABLE>0.9 0.1 0.8 0.2 0.6 0.4 0.0 1.0 1.0 0.0 1.0 0.0 1.0 0.0 1.0 0.0</TABLE>
</DEFINITION>

<DEFINITION>
    <FOR>bicycle_works</FOR>
    <TABLE>0.9 0.1</TABLE>
</DEFINITION>
</NETWORK>
</BIF>